<?xml version="1.0"?>
<opencv_storage>
<cascade>
  <stageType>BOOST</stageType>
  <featureType>HAAR</featureType>
  <height>36</height>
  <width>24</width>
  <stageParams>
    <boostType>GAB</boostType>
    <minHitRate>9.9500000476837158e-01</minHitRate>
    <maxFalseAlarm>5.0000000000000000e-01</maxFalseAlarm>
    <weightTrimRate>9.4999998807907104e-01</weightTrimRate>
    <maxDepth>1</maxDepth>
    <maxWeakCount>100</maxWeakCount></stageParams>
  <featureParams>
    <maxCatCount>0</maxCatCount>
    <featSize>1</featSize>
    <mode>BASIC</mode></featureParams>
  <stageNum>15</stageNum>
  <stages>
    <!-- stage 0 -->
    <_>
      <maxWeakCount>3</maxWeakCount>
      <stageThreshold>-1.1399155855178833e+00</stageThreshold>
      <weakClassifiers>
        <_>
          <internalNodes>
            0 -1 0 -1.6083393990993500e-01</internalNodes>
          <leafValues>
            1. -8.9808917045593262e-01</leafValues></_>
        <_>
          <internalNodes>
            0 -1 54 -1.4142315089702606e-01</internalNodes>
          <leafValues>
            9.1200929880142212e-01 -7.5582993030548096e-01</leafValues></_>
        <_>
          <internalNodes>
            0 -1 32 6.6520864493213594e-05</internalNodes>
          <leafValues>
            5.1400351524353027e-01 -9.5902508497238159e-01</leafValues></_></weakClassifiers></_>
    <!-- stage 1 -->
    <_>
      <maxWeakCount>3</maxWeakCount>
      <stageThreshold>-1.0196456909179688e+00</stageThreshold>
      <weakClassifiers>
        <_>
          <internalNodes>
            0 -1 17 -4.2242172360420227e-01</internalNodes>
          <leafValues>
            9.6190476417541504e-01 -7.8181821107864380e-01</leafValues></_>
        <_>
          <internalNodes>
            0 -1 4 2.2266637824941427e-04</internalNodes>
          <leafValues>
            5.0124615430831909e-01 -8.8266593217849731e-01</leafValues></_>
        <_>
          <internalNodes>
            0 -1 35 -3.4619286656379700e-02</internalNodes>
          <leafValues>
            6.4483839273452759e-01 -6.8360573053359985e-01</leafValues></_></weakClassifiers></_>
    <!-- stage 2 -->
    <_>
      <maxWeakCount>3</maxWeakCount>
      <stageThreshold>-7.5356435775756836e-01</stageThreshold>
      <weakClassifiers>
        <_>
          <internalNodes>
            0 -1 2 -3.0728045105934143e-01</internalNodes>
          <leafValues>
            9.8130840063095093e-01 -8.1595093011856079e-01</leafValues></_>
        <_>
          <internalNodes>
            0 -1 3 -3.1964597292244434e-04</internalNodes>
          <leafValues>
            -6.6300189495086670e-01 6.6865581274032593e-01</leafValues></_>
        <_>
          <internalNodes>
            0 -1 23 -4.7043210268020630e-01</internalNodes>
          <leafValues>
            8.1638103723526001e-01 -6.0626929998397827e-01</leafValues></_></weakClassifiers></_>
    <!-- stage 3 -->
    <_>
      <maxWeakCount>3</maxWeakCount>
      <stageThreshold>-6.9103044271469116e-01</stageThreshold>
      <weakClassifiers>
        <_>
          <internalNodes>
            0 -1 5 -3.7014806270599365e-01</internalNodes>
          <leafValues>
            9.6261680126190186e-01 -8.0368095636367798e-01</leafValues></_>
        <_>
          <internalNodes>
            0 -1 43 1.3714915513992310e-01</internalNodes>
          <leafValues>
            -5.0647825002670288e-01 9.5057570934295654e-01</leafValues></_>
        <_>
          <internalNodes>
            0 -1 33 1.3430589751806110e-04</internalNodes>
          <leafValues>
            6.1912876367568970e-01 -8.3104652166366577e-01</leafValues></_></weakClassifiers></_>
    <!-- stage 4 -->
    <_>
      <maxWeakCount>2</maxWeakCount>
      <stageThreshold>-1.1098695546388626e-01</stageThreshold>
      <weakClassifiers>
        <_>
          <internalNodes>
            0 -1 31 -7.2543460130691528e-01</internalNodes>
          <leafValues>
            8.6046510934829712e-01 -5.5434781312942505e-01</leafValues></_>
        <_>
          <internalNodes>
            0 -1 46 1.6161179519258440e-04</internalNodes>
          <leafValues>
            4.6704983711242676e-01 -9.7145205736160278e-01</leafValues></_></weakClassifiers></_>
    <!-- stage 5 -->
    <_>
      <maxWeakCount>5</maxWeakCount>
      <stageThreshold>-5.1830810308456421e-01</stageThreshold>
      <weakClassifiers>
        <_>
          <internalNodes>
            0 -1 57 -4.5182608067989349e-02</internalNodes>
          <leafValues>
            6.0000002384185791e-01 -6.2580645084381104e-01</leafValues></_>
        <_>
          <internalNodes>
            0 -1 49 2.1906376059632748e-04</internalNodes>
          <leafValues>
            3.7618038058280945e-01 -8.1801402568817139e-01</leafValues></_>
        <_>
          <internalNodes>
            0 -1 28 1.1936595547012985e-04</internalNodes>
          <leafValues>
            3.0180042982101440e-01 -8.6077851057052612e-01</leafValues></_>
        <_>
          <internalNodes>
            0 -1 63 1.0087608825415373e-03</internalNodes>
          <leafValues>
            3.4468409419059753e-01 -8.1463241577148438e-01</leafValues></_>
        <_>
          <internalNodes>
            0 -1 13 -9.6646617748774588e-05</internalNodes>
          <leafValues>
            -9.1516655683517456e-01 2.7906864881515503e-01</leafValues></_></weakClassifiers></_>
    <!-- stage 6 -->
    <_>
      <maxWeakCount>5</maxWeakCount>
      <stageThreshold>-1.2394692897796631e+00</stageThreshold>
      <weakClassifiers>
        <_>
          <internalNodes>
            0 -1 6 -7.5496304035186768e-01</internalNodes>
          <leafValues>
            6.6355139017105103e-01 -6.0736197233200073e-01</leafValues></_>
        <_>
          <internalNodes>
            0 -1 39 4.8715283628553152e-04</internalNodes>
          <leafValues>
            3.3627530932426453e-01 -7.9622983932495117e-01</leafValues></_>
        <_>
          <internalNodes>
            0 -1 34 -9.6126503194682300e-05</internalNodes>
          <leafValues>
            -7.8650343418121338e-01 3.1178990006446838e-01</leafValues></_>
        <_>
          <internalNodes>
            0 -1 42 -2.1411266061477363e-05</internalNodes>
          <leafValues>
            5.6679433584213257e-01 -5.3028559684753418e-01</leafValues></_>
        <_>
          <internalNodes>
            0 -1 68 -2.9834959423169494e-04</internalNodes>
          <leafValues>
            -8.9882934093475342e-01 3.4840631484985352e-01</leafValues></_></weakClassifiers></_>
    <!-- stage 7 -->
    <_>
      <maxWeakCount>5</maxWeakCount>
      <stageThreshold>-3.6475890874862671e-01</stageThreshold>
      <weakClassifiers>
        <_>
          <internalNodes>
            0 -1 16 -3.3149126172065735e-01</internalNodes>
          <leafValues>
            5.3284668922424316e-01 -7.5939851999282837e-01</leafValues></_>
        <_>
          <internalNodes>
            0 -1 50 -3.3577009162399918e-05</internalNodes>
          <leafValues>
            -8.2689690589904785e-01 2.3893561959266663e-01</leafValues></_>
        <_>
          <internalNodes>
            0 -1 26 -5.1716146117541939e-05</internalNodes>
          <leafValues>
            3.8567727804183960e-01 -6.2084358930587769e-01</leafValues></_>
        <_>
          <internalNodes>
            0 -1 22 -1.3189361197873950e-04</internalNodes>
          <leafValues>
            -7.6996302604675293e-01 3.1095635890960693e-01</leafValues></_>
        <_>
          <internalNodes>
            0 -1 66 -1.8692880985327065e-05</internalNodes>
          <leafValues>
            5.3998976945877075e-01 -4.7041574120521545e-01</leafValues></_></weakClassifiers></_>
    <!-- stage 8 -->
    <_>
      <maxWeakCount>6</maxWeakCount>
      <stageThreshold>-4.7844853997230530e-01</stageThreshold>
      <weakClassifiers>
        <_>
          <internalNodes>
            0 -1 51 -5.5067205429077148e-01</internalNodes>
          <leafValues>
            6.9230771064758301e-01 -6.0240966081619263e-01</leafValues></_>
        <_>
          <internalNodes>
            0 -1 9 1.7442885786294937e-02</internalNodes>
          <leafValues>
            -5.1905488967895508e-01 5.8617460727691650e-01</leafValues></_>
        <_>
          <internalNodes>
            0 -1 19 1.2768838554620743e-02</internalNodes>
          <leafValues>
            2.6361557841300964e-01 -7.9717099666595459e-01</leafValues></_>
        <_>
          <internalNodes>
            0 -1 61 -6.5149783040396869e-05</internalNodes>
          <leafValues>
            -7.0040839910507202e-01 3.0169403553009033e-01</leafValues></_>
        <_>
          <internalNodes>
            0 -1 56 6.1193168163299561e-02</internalNodes>
          <leafValues>
            -3.1913584470748901e-01 8.8504880666732788e-01</leafValues></_>
        <_>
          <internalNodes>
            0 -1 76 7.3913187952712178e-04</internalNodes>
          <leafValues>
            4.1917845606803894e-01 -7.0838731527328491e-01</leafValues></_></weakClassifiers></_>
    <!-- stage 9 -->
    <_>
      <maxWeakCount>7</maxWeakCount>
      <stageThreshold>-8.8672041893005371e-01</stageThreshold>
      <weakClassifiers>
        <_>
          <internalNodes>
            0 -1 65 -4.0139469504356384e-01</internalNodes>
          <leafValues>
            6.2352943420410156e-01 -4.3783783912658691e-01</leafValues></_>
        <_>
          <internalNodes>
            0 -1 67 -8.3234837802592665e-05</internalNodes>
          <leafValues>
            -7.8781837224960327e-01 3.0549496412277222e-01</leafValues></_>
        <_>
          <internalNodes>
            0 -1 15 9.5529103418812156e-05</internalNodes>
          <leafValues>
            2.4654260277748108e-01 -6.7033511400222778e-01</leafValues></_>
        <_>
          <internalNodes>
            0 -1 25 -1.4313522726297379e-02</internalNodes>
          <leafValues>
            3.9623168110847473e-01 -4.8434922099113464e-01</leafValues></_>
        <_>
          <internalNodes>
            0 -1 20 -2.2785335779190063e-02</internalNodes>
          <leafValues>
            9.0547186136245728e-01 -2.2855749726295471e-01</leafValues></_>
        <_>
          <internalNodes>
            0 -1 53 -8.6357853433582932e-05</internalNodes>
          <leafValues>
            -6.2708866596221924e-01 4.3017733097076416e-01</leafValues></_>
        <_>
          <internalNodes>
            0 -1 10 1.2636566680157557e-05</internalNodes>
          <leafValues>
            -5.5519360303878784e-01 3.7537208199501038e-01</leafValues></_></weakClassifiers></_>
    <!-- stage 10 -->
    <_>
      <maxWeakCount>8</maxWeakCount>
      <stageThreshold>-3.6364853382110596e-01</stageThreshold>
      <weakClassifiers>
        <_>
          <internalNodes>
            0 -1 36 -1.7159013077616692e-04</internalNodes>
          <leafValues>
            -7.9166668653488159e-01 2.7586206793785095e-01</leafValues></_>
        <_>
          <internalNodes>
            0 -1 60 7.7394564868882298e-05</internalNodes>
          <leafValues>
            1.6976973414421082e-01 -8.5915726423263550e-01</leafValues></_>
        <_>
          <internalNodes>
            0 -1 69 1.6311637591570616e-04</internalNodes>
          <leafValues>
            3.3863857388496399e-01 -5.3237432241439819e-01</leafValues></_>
        <_>
          <internalNodes>
            0 -1 71 -3.7295059300959110e-03</internalNodes>
          <leafValues>
            2.4535951018333435e-01 -7.2191679477691650e-01</leafValues></_>
        <_>
          <internalNodes>
            0 -1 58 -2.7014968509320170e-05</internalNodes>
          <leafValues>
            4.0211826562881470e-01 -4.5133340358734131e-01</leafValues></_>
        <_>
          <internalNodes>
            0 -1 52 1.8458854174241424e-04</internalNodes>
          <leafValues>
            3.0994394421577454e-01 -6.3308548927307129e-01</leafValues></_>
        <_>
          <internalNodes>
            0 -1 72 1.1408761201892048e-04</internalNodes>
          <leafValues>
            2.5877916812896729e-01 -7.6067268848419189e-01</leafValues></_>
        <_>
          <internalNodes>
            0 -1 27 1.6846325248479843e-02</internalNodes>
          <leafValues>
            -2.7713921666145325e-01 7.7245903015136719e-01</leafValues></_></weakClassifiers></_>
    <!-- stage 11 -->
    <_>
      <maxWeakCount>7</maxWeakCount>
      <stageThreshold>-8.3215385675430298e-01</stageThreshold>
      <weakClassifiers>
        <_>
          <internalNodes>
            0 -1 40 8.8586816564202309e-03</internalNodes>
          <leafValues>
            -4.2553192377090454e-01 6.3414633274078369e-01</leafValues></_>
        <_>
          <internalNodes>
            0 -1 12 -7.7979604247957468e-04</internalNodes>
          <leafValues>
            -7.6092392206192017e-01 3.0665460228919983e-01</leafValues></_>
        <_>
          <internalNodes>
            0 -1 55 2.1147426217794418e-02</internalNodes>
          <leafValues>
            2.0151568949222565e-01 -8.4125506877899170e-01</leafValues></_>
        <_>
          <internalNodes>
            0 -1 48 -1.1810972864623182e-05</internalNodes>
          <leafValues>
            4.1827350854873657e-01 -5.0250005722045898e-01</leafValues></_>
        <_>
          <internalNodes>
            0 -1 30 -1.8000371754169464e-02</internalNodes>
          <leafValues>
            5.4969882965087891e-01 -3.7360680103302002e-01</leafValues></_>
        <_>
          <internalNodes>
            0 -1 41 4.5721190981566906e-03</internalNodes>
          <leafValues>
            -2.5757884979248047e-01 7.2447162866592407e-01</leafValues></_>
        <_>
          <internalNodes>
            0 -1 18 -1.0237056267214939e-04</internalNodes>
          <leafValues>
            -7.0188009738922119e-01 2.6870858669281006e-01</leafValues></_></weakClassifiers></_>
    <!-- stage 12 -->
    <_>
      <maxWeakCount>8</maxWeakCount>
      <stageThreshold>-1.2275481224060059e+00</stageThreshold>
      <weakClassifiers>
        <_>
          <internalNodes>
            0 -1 7 -9.8258554935455322e-01</internalNodes>
          <leafValues>
            9.1111111640930176e-01 -3.0666667222976685e-01</leafValues></_>
        <_>
          <internalNodes>
            0 -1 14 -3.1195476651191711e-01</internalNodes>
          <leafValues>
            5.6845408678054810e-01 -2.9244047403335571e-01</leafValues></_>
        <_>
          <internalNodes>
            0 -1 44 -1.5175947919487953e-04</internalNodes>
          <leafValues>
            -7.2700732946395874e-01 2.0951299369335175e-01</leafValues></_>
        <_>
          <internalNodes>
            0 -1 1 1.1206181625311729e-05</internalNodes>
          <leafValues>
            -3.1579530239105225e-01 5.5647784471511841e-01</leafValues></_>
        <_>
          <internalNodes>
            0 -1 78 3.2451099832542241e-04</internalNodes>
          <leafValues>
            4.0058284997940063e-01 -4.4647732377052307e-01</leafValues></_>
        <_>
          <internalNodes>
            0 -1 77 -1.0980877959809732e-05</internalNodes>
          <leafValues>
            4.7227585315704346e-01 -4.7744560241699219e-01</leafValues></_>
        <_>
          <internalNodes>
            0 -1 45 -8.4126793080940843e-04</internalNodes>
          <leafValues>
            2.3816761374473572e-01 -8.5446864366531372e-01</leafValues></_>
        <_>
          <internalNodes>
            0 -1 21 -8.0805951729416847e-03</internalNodes>
          <leafValues>
            -8.3024466037750244e-01 1.6359660029411316e-01</leafValues></_></weakClassifiers></_>
    <!-- stage 13 -->
    <_>
      <maxWeakCount>7</maxWeakCount>
      <stageThreshold>-8.1213057041168213e-01</stageThreshold>
      <weakClassifiers>
        <_>
          <internalNodes>
            0 -1 8 -1.3292898074723780e-04</internalNodes>
          <leafValues>
            -5.0684928894042969e-01 3.7096774578094482e-01</leafValues></_>
        <_>
          <internalNodes>
            0 -1 74 1.2463377788662910e-04</internalNodes>
          <leafValues>
            -6.3097608089447021e-01 3.2666435837745667e-01</leafValues></_>
        <_>
          <internalNodes>
            0 -1 59 -5.7578530686441809e-05</internalNodes>
          <leafValues>
            -8.6335015296936035e-01 2.2605203092098236e-01</leafValues></_>
        <_>
          <internalNodes>
            0 -1 37 8.1014892202802002e-05</internalNodes>
          <leafValues>
            2.2844924032688141e-01 -7.2147041559219360e-01</leafValues></_>
        <_>
          <internalNodes>
            0 -1 64 2.2561069272342138e-05</internalNodes>
          <leafValues>
            -3.5456743836402893e-01 5.7496041059494019e-01</leafValues></_>
        <_>
          <internalNodes>
            0 -1 62 -5.9944059466943145e-04</internalNodes>
          <leafValues>
            -8.2910859584808350e-01 2.2339399158954620e-01</leafValues></_>
        <_>
          <internalNodes>
            0 -1 33 9.6250601927749813e-05</internalNodes>
          <leafValues>
            1.3412868976593018e-01 -8.3490169048309326e-01</leafValues></_></weakClassifiers></_>
    <!-- stage 14 -->
    <_>
      <maxWeakCount>8</maxWeakCount>
      <stageThreshold>-1.3202219009399414e+00</stageThreshold>
      <weakClassifiers>
        <_>
          <internalNodes>
            0 -1 29 4.2908202158287168e-04</internalNodes>
          <leafValues>
            3.1506848335266113e-01 -5.9677422046661377e-01</leafValues></_>
        <_>
          <internalNodes>
            0 -1 11 1.9981020159320906e-05</internalNodes>
          <leafValues>
            -5.9105753898620605e-01 2.8130611777305603e-01</leafValues></_>
        <_>
          <internalNodes>
            0 -1 75 -5.9203822165727615e-03</internalNodes>
          <leafValues>
            5.4261624813079834e-01 -3.0871757864952087e-01</leafValues></_>
        <_>
          <internalNodes>
            0 -1 73 1.0739837307482958e-04</internalNodes>
          <leafValues>
            3.4630212187767029e-01 -6.1490583419799805e-01</leafValues></_>
        <_>
          <internalNodes>
            0 -1 38 -1.5236952458508313e-04</internalNodes>
          <leafValues>
            -8.1478697061538696e-01 1.8210458755493164e-01</leafValues></_>
        <_>
          <internalNodes>
            0 -1 47 -5.1373325288295746e-02</internalNodes>
          <leafValues>
            7.7404737472534180e-01 -2.8124853968620300e-01</leafValues></_>
        <_>
          <internalNodes>
            0 -1 24 -2.4792819749563932e-04</internalNodes>
          <leafValues>
            -6.4683765172958374e-01 3.6395135521888733e-01</leafValues></_>
        <_>
          <internalNodes>
            0 -1 70 -5.8978919696528465e-05</internalNodes>
          <leafValues>
            5.2001726627349854e-01 -3.8541686534881592e-01</leafValues></_></weakClassifiers></_></stages>
  <features>
    <_>
      <rects>
        <_>
          0 0 24 22 -1.</_>
        <_>
          0 11 24 11 2.</_></rects>
      <tilted>0</tilted></_>
    <_>
      <rects>
        <_>
          0 1 19 6 -1.</_>
        <_>
          0 4 19 3 2.</_></rects>
      <tilted>0</tilted></_>
    <_>
      <rects>
        <_>
          0 1 22 22 -1.</_>
        <_>
          0 12 22 11 2.</_></rects>
      <tilted>0</tilted></_>
    <_>
      <rects>
        <_>
          0 2 4 6 -1.</_>
        <_>
          0 5 4 3 2.</_></rects>
      <tilted>0</tilted></_>
    <_>
      <rects>
        <_>
          0 3 3 4 -1.</_>
        <_>
          0 5 3 2 2.</_></rects>
      <tilted>0</tilted></_>
    <_>
      <rects>
        <_>
          0 3 15 33 -1.</_>
        <_>
          0 14 15 11 3.</_></rects>
      <tilted>0</tilted></_>
    <_>
      <rects>
        <_>
          0 3 24 33 -1.</_>
        <_>
          0 14 24 11 3.</_></rects>
      <tilted>0</tilted></_>
    <_>
      <rects>
        <_>
          0 5 24 30 -1.</_>
        <_>
          0 15 24 10 3.</_></rects>
      <tilted>0</tilted></_>
    <_>
      <rects>
        <_>
          0 6 2 6 -1.</_>
        <_>
          0 9 2 3 2.</_></rects>
      <tilted>0</tilted></_>
    <_>
      <rects>
        <_>
          0 22 4 14 -1.</_>
        <_>
          0 29 4 7 2.</_></rects>
      <tilted>0</tilted></_>
    <_>
      <rects>
        <_>
          0 26 4 4 -1.</_>
        <_>
          0 26 2 2 2.</_>
        <_>
          2 28 2 2 2.</_></rects>
      <tilted>0</tilted></_>
    <_>
      <rects>
        <_>
          0 30 17 4 -1.</_>
        <_>
          0 32 17 2 2.</_></rects>
      <tilted>0</tilted></_>
    <_>
      <rects>
        <_>
          0 34 15 2 -1.</_>
        <_>
          5 34 5 2 3.</_></rects>
      <tilted>0</tilted></_>
    <_>
      <rects>
        <_>
          1 0 6 4 -1.</_>
        <_>
          1 0 3 2 2.</_>
        <_>
          4 2 3 2 2.</_></rects>
      <tilted>0</tilted></_>
    <_>
      <rects>
        <_>
          1 0 17 20 -1.</_>
        <_>
          1 10 17 10 2.</_></rects>
      <tilted>0</tilted></_>
    <_>
      <rects>
        <_>
          1 1 9 3 -1.</_>
        <_>
          1 2 9 1 3.</_></rects>
      <tilted>0</tilted></_>
    <_>
      <rects>
        <_>
          1 3 13 33 -1.</_>
        <_>
          1 14 13 11 3.</_></rects>
      <tilted>0</tilted></_>
    <_>
      <rects>
        <_>
          1 3 16 33 -1.</_>
        <_>
          1 14 16 11 3.</_></rects>
      <tilted>0</tilted></_>
    <_>
      <rects>
        <_>
          1 7 5 3 -1.</_>
        <_>
          1 8 5 1 3.</_></rects>
      <tilted>0</tilted></_>
    <_>
      <rects>
        <_>
          1 8 12 27 -1.</_>
        <_>
          5 8 4 27 3.</_></rects>
      <tilted>0</tilted></_>
    <_>
      <rects>
        <_>
          1 8 16 6 -1.</_>
        <_>
          1 10 16 2 3.</_></rects>
      <tilted>0</tilted></_>
    <_>
      <rects>
        <_>
          1 28 18 5 -1.</_>
        <_>
          7 28 6 5 3.</_></rects>
      <tilted>0</tilted></_>
    <_>
      <rects>
        <_>
          1 31 6 1 -1.</_>
        <_>
          4 31 3 1 2.</_></rects>
      <tilted>0</tilted></_>
    <_>
      <rects>
        <_>
          2 0 21 36 -1.</_>
        <_>
          2 12 21 12 3.</_></rects>
      <tilted>0</tilted></_>
    <_>
      <rects>
        <_>
          2 2 5 6 -1.</_>
        <_>
          2 5 5 3 2.</_></rects>
      <tilted>0</tilted></_>
    <_>
      <rects>
        <_>
          2 9 1 27 -1.</_>
        <_>
          2 18 1 9 3.</_></rects>
      <tilted>0</tilted></_>
    <_>
      <rects>
        <_>
          2 12 2 23 -1.</_>
        <_>
          3 12 1 23 2.</_></rects>
      <tilted>0</tilted></_>
    <_>
      <rects>
        <_>
          2 27 14 8 -1.</_>
        <_>
          2 27 7 4 2.</_>
        <_>
          9 31 7 4 2.</_></rects>
      <tilted>0</tilted></_>
    <_>
      <rects>
        <_>
          3 0 6 3 -1.</_>
        <_>
          3 1 6 1 3.</_></rects>
      <tilted>0</tilted></_>
    <_>
      <rects>
        <_>
          3 0 13 9 -1.</_>
        <_>
          3 3 13 3 3.</_></rects>
      <tilted>0</tilted></_>
    <_>
      <rects>
        <_>
          3 1 1 20 -1.</_>
        <_>
          3 11 1 10 2.</_></rects>
      <tilted>0</tilted></_>
    <_>
      <rects>
        <_>
          3 2 21 33 -1.</_>
        <_>
          3 13 21 11 3.</_></rects>
      <tilted>0</tilted></_>
    <_>
      <rects>
        <_>
          4 0 1 2 -1.</_>
        <_>
          4 1 1 1 2.</_></rects>
      <tilted>0</tilted></_>
    <_>
      <rects>
        <_>
          4 1 2 4 -1.</_>
        <_>
          4 3 2 2 2.</_></rects>
      <tilted>0</tilted></_>
    <_>
      <rects>
        <_>
          4 1 5 4 -1.</_>
        <_>
          4 3 5 2 2.</_></rects>
      <tilted>0</tilted></_>
    <_>
      <rects>
        <_>
          4 3 2 33 -1.</_>
        <_>
          4 14 2 11 3.</_></rects>
      <tilted>0</tilted></_>
    <_>
      <rects>
        <_>
          4 34 15 2 -1.</_>
        <_>
          4 35 15 1 2.</_></rects>
      <tilted>0</tilted></_>
    <_>
      <rects>
        <_>
          5 33 6 1 -1.</_>
        <_>
          7 33 2 1 3.</_></rects>
      <tilted>0</tilted></_>
    <_>
      <rects>
        <_>
          6 30 6 1 -1.</_>
        <_>
          8 30 2 1 3.</_></rects>
      <tilted>0</tilted></_>
    <_>
      <rects>
        <_>
          6 34 15 2 -1.</_>
        <_>
          6 35 15 1 2.</_></rects>
      <tilted>0</tilted></_>
    <_>
      <rects>
        <_>
          7 1 1 18 -1.</_>
        <_>
          7 7 1 6 3.</_></rects>
      <tilted>0</tilted></_>
    <_>
      <rects>
        <_>
          7 10 5 9 -1.</_>
        <_>
          7 13 5 3 3.</_></rects>
      <tilted>0</tilted></_>
    <_>
      <rects>
        <_>
          7 15 1 2 -1.</_>
        <_>
          7 16 1 1 2.</_></rects>
      <tilted>0</tilted></_>
    <_>
      <rects>
        <_>
          7 20 17 16 -1.</_>
        <_>
          7 28 17 8 2.</_></rects>
      <tilted>0</tilted></_>
    <_>
      <rects>
        <_>
          7 33 10 3 -1.</_>
        <_>
          7 34 10 1 3.</_></rects>
      <tilted>0</tilted></_>
    <_>
      <rects>
        <_>
          8 0 1 30 -1.</_>
        <_>
          8 15 1 15 2.</_></rects>
      <tilted>0</tilted></_>
    <_>
      <rects>
        <_>
          8 2 4 3 -1.</_>
        <_>
          10 2 2 3 2.</_></rects>
      <tilted>0</tilted></_>
    <_>
      <rects>
        <_>
          8 3 15 15 -1.</_>
        <_>
          8 8 15 5 3.</_></rects>
      <tilted>0</tilted></_>
    <_>
      <rects>
        <_>
          8 9 6 6 -1.</_>
        <_>
          8 9 3 3 2.</_>
        <_>
          11 12 3 3 2.</_></rects>
      <tilted>0</tilted></_>
    <_>
      <rects>
        <_>
          8 35 10 1 -1.</_>
        <_>
          13 35 5 1 2.</_></rects>
      <tilted>0</tilted></_>
    <_>
      <rects>
        <_>
          9 0 2 1 -1.</_>
        <_>
          10 0 1 1 2.</_></rects>
      <tilted>0</tilted></_>
    <_>
      <rects>
        <_>
          9 0 15 36 -1.</_>
        <_>
          9 12 15 12 3.</_></rects>
      <tilted>0</tilted></_>
    <_>
      <rects>
        <_>
          9 6 11 3 -1.</_>
        <_>
          9 7 11 1 3.</_></rects>
      <tilted>0</tilted></_>
    <_>
      <rects>
        <_>
          9 32 4 4 -1.</_>
        <_>
          9 32 2 2 2.</_>
        <_>
          11 34 2 2 2.</_></rects>
      <tilted>0</tilted></_>
    <_>
      <rects>
        <_>
          10 0 14 36 -1.</_>
        <_>
          10 12 14 12 3.</_></rects>
      <tilted>0</tilted></_>
    <_>
      <rects>
        <_>
          10 3 10 33 -1.</_>
        <_>
          15 3 5 33 2.</_></rects>
      <tilted>0</tilted></_>
    <_>
      <rects>
        <_>
          11 1 13 12 -1.</_>
        <_>
          11 5 13 4 3.</_></rects>
      <tilted>0</tilted></_>
    <_>
      <rects>
        <_>
          11 3 3 18 -1.</_>
        <_>
          11 12 3 9 2.</_></rects>
      <tilted>0</tilted></_>
    <_>
      <rects>
        <_>
          11 22 3 3 -1.</_>
        <_>
          12 22 1 3 3.</_></rects>
      <tilted>0</tilted></_>
    <_>
      <rects>
        <_>
          12 0 1 4 -1.</_>
        <_>
          12 2 1 2 2.</_></rects>
      <tilted>0</tilted></_>
    <_>
      <rects>
        <_>
          12 0 6 2 -1.</_>
        <_>
          12 0 3 1 2.</_>
        <_>
          15 1 3 1 2.</_></rects>
      <tilted>0</tilted></_>
    <_>
      <rects>
        <_>
          12 7 3 2 -1.</_>
        <_>
          12 8 3 1 2.</_></rects>
      <tilted>0</tilted></_>
    <_>
      <rects>
        <_>
          12 34 12 2 -1.</_>
        <_>
          16 34 4 2 3.</_></rects>
      <tilted>0</tilted></_>
    <_>
      <rects>
        <_>
          13 2 10 10 -1.</_>
        <_>
          13 7 10 5 2.</_></rects>
      <tilted>0</tilted></_>
    <_>
      <rects>
        <_>
          14 0 8 8 -1.</_>
        <_>
          14 4 8 4 2.</_></rects>
      <tilted>0</tilted></_>
    <_>
      <rects>
        <_>
          14 3 10 33 -1.</_>
        <_>
          14 14 10 11 3.</_></rects>
      <tilted>0</tilted></_>
    <_>
      <rects>
        <_>
          14 18 2 1 -1.</_>
        <_>
          15 18 1 1 2.</_></rects>
      <tilted>0</tilted></_>
    <_>
      <rects>
        <_>
          14 32 4 3 -1.</_>
        <_>
          14 33 4 1 3.</_></rects>
      <tilted>0</tilted></_>
    <_>
      <rects>
        <_>
          15 33 9 2 -1.</_>
        <_>
          18 33 3 2 3.</_></rects>
      <tilted>0</tilted></_>
    <_>
      <rects>
        <_>
          16 31 2 4 -1.</_>
        <_>
          16 33 2 2 2.</_></rects>
      <tilted>0</tilted></_>
    <_>
      <rects>
        <_>
          19 0 4 6 -1.</_>
        <_>
          21 0 2 6 2.</_></rects>
      <tilted>0</tilted></_>
    <_>
      <rects>
        <_>
          19 1 1 18 -1.</_>
        <_>
          19 10 1 9 2.</_></rects>
      <tilted>0</tilted></_>
    <_>
      <rects>
        <_>
          19 18 2 1 -1.</_>
        <_>
          20 18 1 1 2.</_></rects>
      <tilted>0</tilted></_>
    <_>
      <rects>
        <_>
          19 29 2 3 -1.</_>
        <_>
          19 30 2 1 3.</_></rects>
      <tilted>0</tilted></_>
    <_>
      <rects>
        <_>
          20 8 1 26 -1.</_>
        <_>
          20 21 1 13 2.</_></rects>
      <tilted>0</tilted></_>
    <_>
      <rects>
        <_>
          21 7 1 15 -1.</_>
        <_>
          21 12 1 5 3.</_></rects>
      <tilted>0</tilted></_>
    <_>
      <rects>
        <_>
          21 11 3 12 -1.</_>
        <_>
          21 15 3 4 3.</_></rects>
      <tilted>0</tilted></_>
    <_>
      <rects>
        <_>
          21 15 2 3 -1.</_>
        <_>
          22 15 1 3 2.</_></rects>
      <tilted>0</tilted></_>
    <_>
      <rects>
        <_>
          21 21 1 4 -1.</_>
        <_>
          21 23 1 2 2.</_></rects>
      <tilted>0</tilted></_></features></cascade>
</opencv_storage>
